64 50
AAA 0.24131986 0.064559855 -0.035954554 -0.22710374 -0.049871102 0.16484383 0.0030316804 0.081225924 -0.29871252 -0.06671947 -0.0044311425 0.13926803 -0.09772671 -0.20045044 0.045957316 -0.3063684 0.28451145 0.114172146 -0.00649141 0.15701772 0.15153246 0.07183444 0.031302907 0.15661731 -0.036379848 0.077945225 0.062890895 0.012073875 -0.37701285 0.36763397 -0.37628195 -0.0734981 0.32030648 0.09408231 -0.17042272 0.02342015 -0.10788206 0.11061247 -0.1101277 -0.31129318 -0.40516627 0.23826711 0.14731358 -0.019073432 -0.05739629 0.082662635 -0.06711874 0.12206223 0.30790278 -0.13715436
TTT 0.29080623 -0.046651628 -0.19437365 -0.014692864 -0.18137924 0.28007773 -0.015275601 -0.24207643 0.17610538 0.08843783 -0.21223591 -0.030204166 -0.2520843 -0.044371083 -0.11759522 0.0705188 0.21000485 0.31958872 -0.052414786 -0.0568436 0.061458245 0.120761566 -0.07898448 0.08116132 -0.17285596 0.060720798 -0.07726493 0.07969894 -0.21334061 0.04092749 -0.35763565 -0.114281766 0.44768128 0.08868605 -0.30998755 -0.21397896 0.011026649 0.27679414 -0.104286924 -0.37373897 -0.12640406 0.08090144 0.19189584 0.3216877 0.11203088 0.106857665 0.12662767 0.08816656 0.18477722 -0.019375259
GAA -0.04160543 -0.046140667 0.016690414 -0.13455701 0.021976084 0.22745012 -0.029986657 0.050464626 -0.22150545 -0.2760717 -0.047698505 0.28308275 -0.044495367 -0.09168248 0.045374643 -0.2126002 0.18118568 -0.0061165574 0.11540477 0.18491194 0.0062470296 0.060379118 -0.051670473 -0.036955696 -0.053314894 0.14883076 -0.025673121 0.10462787 -0.3005426 0.33573505 -0.20561579 -0.035034597 0.33399376 0.0076178736 -0.19027855 -0.19568355 -0.0029717956 0.26491413 -0.2222143 -0.12892838 -0.41551945 0.19479053 0.049682185 -0.05324113 0.0022407705 -0.09814688 -0.2789058 0.18742715 0.2338914 -0.17156664
AAG 0.26772243 -0.19144551 -0.11120998 -0.16700442 -0.041525964 0.106385164 -0.034144543 0.026739577 -0.25877172 -0.043093182 0.18930705 0.3217079 -0.24391828 -0.27671918 0.045222007 -0.2521311 -0.07380481 0.22999823 -0.09212279 0.24277847 0.050080143 0.08339893 0.057165444 0.12344887 0.14423704 0.10040542 0.18319997 0.0052225227 -0.22087984 0.2643544 -0.098295994 0.12248679 0.2724463 0.07276836 -0.11144916 -0.035381015 -0.16367096 0.09325295 -0.10657182 -0.37082127 -0.36340317 0.04605567 -0.027859723 0.10703772 0.12696007 -0.108886495 -0.1133664 -0.017150626 0.23981155 -0.026168518
GGA 0.12130301 -0.13506481 -0.108045295 -0.10463006 -0.1446935 -0.04402137 0.023758993 -0.17869173 -0.25092438 -0.214912 -0.1898315 0.4044311 -0.3077784 -0.33548832 -0.13695249 0.1678354 0.039712824 0.21226487 0.054154396 0.34519058 0.09476811 0.1006159 -0.08337281 -0.110799454 0.018981695 0.08986724 0.1494115 0.05013071 -0.21411407 0.12515342 -0.04384764 -0.120441444 0.15507436 -0.1458615 -0.111099005 -0.123651646 -0.16417122 0.18120757 -0.33242482 -0.05964163 -0.24158667 0.12673004 -0.07777551 -0.065040536 0.16130207 0.23102058 -0.26270196 0.36496216 -0.06722166 -0.10147773
AGA -0.055042583 -0.10616321 -0.1862524 -0.13412517 -0.13933882 -0.043812573 0.082242906 -0.07957861 -0.137904 -0.071335025 -0.0423696 0.32753104 -0.2308856 -0.21452986 0.1247214 0.055967633 0.06328634 0.1606668 -0.0033656305 0.15368374 -0.043614812 0.10757742 0.1260329 -0.04010109 0.055377737 0.031105632 0.065649725 0.1557286 -0.24753486 0.16451205 -0.27650362 0.04731259 0.20295398 -0.057950098 0.028735064 -0.11690453 -0.15350989 0.14850837 -0.3356823 -0.18269345 -0.4205011 0.13437502 0.028536161 0.08251108 0.04887553 0.16938506 -0.41601902 0.1744567 0.24984837 -0.094190806
AGG 0.12971357 -0.29807997 -0.08082569 -0.17974642 -0.15739699 0.3535254 0.12090804 -0.14504616 -0.15868796 -0.05979469 -0.06712645 0.3647626 -0.24416792 0.035593845 0.18684094 -0.009422741 0.0220478 0.052761152 -0.1326451 0.17583874 0.020658264 0.07120141 0.015231743 0.1147459 0.13074486 0.029498665 0.0071668434 0.2009487 -0.3852007 0.10579529 -0.108057514 0.07906525 -0.0015935609 0.008938935 0.0952687 -0.069973156 -0.085654825 0.1556124 -0.34042546 -0.08548466 -0.44090053 0.075424865 0.03492253 -0.02033743 0.20151694 0.08624038 -0.22468174 0.07905322 0.25764394 0.093493655
CAA 0.234728 -0.12793387 -0.10713969 -0.015248771 -0.01083556 0.119426936 -0.1336614 -0.016619984 -0.17208107 -0.2390662 -0.019124897 0.0011576633 0.02609269 -0.15974878 0.22351132 -0.21868554 0.15103507 0.06536712 0.09366703 0.094852574 0.12781018 0.15851228 -0.010422267 -0.18886276 0.004899645 0.09440354 0.031839706 0.21495655 -0.40742573 0.30938682 -0.25043762 -0.11309421 0.05873632 0.11048892 -0.15001613 0.077539 -0.098287575 0.2049063 -0.10999162 0.07852354 -0.33952987 0.40921515 -0.08273553 0.21633996 -0.3444357 0.122328654 -0.1637814 0.066546276 0.101363145 -0.18551713
ATT 0.25783822 -0.2141651 -0.14575684 -0.04950953 -0.08035772 0.33649746 -0.16488107 -0.21369465 0.0073332605 0.10382024 0.02829104 0.16544892 -0.2084728 -0.056626465 0.058212988 -0.002645291 0.16776516 -0.022576345 0.14186005 0.1563133 -0.05044721 0.114209466 -0.1216363 0.08298651 -0.24260294 0.10337955 0.053987026 0.07445392 -0.29993147 0.017671814 -0.24079989 -0.02482473 0.20434815 0.07462649 -0.26209462 -0.19453593 0.075692475 0.29873803 -0.19757083 -0.25962386 -0.110613085 0.05290692 0.26787904 0.15977769 -0.012453617 0.0117743015 0.08313192 0.27200416 0.30911478 0.008166832
GAG 0.030681847 -0.19488914 -0.15019694 -0.06417879 -0.036945254 0.30358624 -0.0636476 -0.008079963 -0.26114175 -0.32336676 -0.00095146755 0.4008342 -0.2852517 -0.16678503 -0.04801879 -0.16462144 -0.10604992 0.17946903 -0.019120397 0.31487978 0.048823394 0.01266634 -0.2546101 -0.11564424 0.12309682 0.19327164 0.13149135 0.2259457 -0.22187383 0.14563318 0.119530566 0.06012478 0.240958 0.04147073 -0.22621444 -0.3135847 0.0037750574 0.29497793 -0.23995186 -0.07295547 -0.18434629 -0.0591374 -0.061602928 0.044157807 0.25048658 -0.20778678 -0.30183202 0.2823173 -0.005034428 -0.14938368
AAT 0.24574687 -0.21350782 -0.020623336 -0.1793194 -0.13027214 0.08767057 -0.12422674 -0.107315265 -0.14722803 0.1192183 0.013542639 0.3139933 -0.20462897 -0.20698786 -0.09052691 -0.1219974 0.1779911 -0.09711254 -0.02758918 0.30847666 -0.02159396 0.21077977 0.11583592 0.23970558 -0.14422317 0.13605714 -0.006200216 0.024185514 -0.17177486 0.16229643 -0.45903644 0.040284164 0.33025882 -0.010586795 -0.018112725 -0.081196874 -0.105217226 -0.008251505 -0.22556515 -0.22544813 -0.47594357 0.24757613 0.0717164 0.015098765 -0.06324481 0.14782009 0.06726785 -0.0006745702 0.035734802 -0.07514292
TGG 0.26131293 -0.22883366 -0.15582658 -0.03553348 -0.040861156 0.38756773 0.32741877 -0.14052962 -0.23389272 -0.19707556 -0.10962921 0.07888043 -0.030943453 0.008288999 0.20779131 0.03395776 -0.040909804 0.0055576204 -0.1726874 0.24132565 0.23401429 0.13904884 -0.14070135 0.15338594 0.022582687 0.08233486 0.10370209 0.032643847 -0.45806992 -0.0010514919 -0.06354903 -0.18385017 0.19768356 -0.026610468 -0.08338722 -0.273973 -0.012558688 0.32683113 -0.18801667 -0.07065451 -0.32110643 0.046393365 -0.045597147 0.059798688 0.23625594 0.107434936 0.15879942 -0.10508466 0.12661417 -0.028827481
TTG 0.1719563 -0.06055508 -0.16095129 0.015841635 -0.10912381 0.13602306 0.10407014 -0.27909845 0.15274036 -0.06268636 -0.20155413 0.2459486 -0.083462246 -0.0680515 -0.19115812 -0.01446058 0.046898447 0.15203081 -0.045198295 -0.037885882 -0.03865412 0.051748414 -0.028781185 -0.062211912 -0.152408 0.11897367 -0.088229746 0.0067169336 -0.27781916 0.0832607 -0.24592711 -0.23314612 0.2942599 0.025639499 -0.15857367 -0.07265228 -0.12548901 0.26684463 -0.18459609 -0.18545382 -0.40286568 0.026236206 -0.038762063 0.3353715 0.36336797 -0.060528267 0.03901905 -0.055065203 0.08864178 0.16000554
CCA 0.121376365 -0.35826918 -0.13628091 0.059459906 0.120661326 0.0012945667 -0.031104658 -0.0020024506 -0.21869217 -0.15067165 0.13899313 -0.051799748 -0.27930677 -0.16872515 0.06298818 -0.10669756 -0.110293016 -0.07008689 0.34059334 0.17839761 0.19847582 0.1846275 -0.1022349 0.045091745 -0.15054391 0.089483455 -0.07312367 0.21468039 -0.246996 0.33507577 -0.28549248 -0.22843857 -0.03711427 0.11002467 -0.06867208 -0.21862103 -0.11867076 0.17703903 -0.096693575 0.03180335 -0.19541828 0.2566182 -0.2225291 0.46363914 -0.08816637 0.12577014 -0.18333846 -0.054233734 0.044580873 0.16376153
TAT 0.1821468 -0.32719252 -0.21451165 -0.17853487 -0.18123522 0.025948402 -0.07682217 -0.15119606 0.050234277 0.1400274 -0.031776443 0.2936987 -0.11264655 -0.16064614 -0.17514572 -0.10423152 -0.045649946 -0.14600836 -0.038702216 0.097993255 -0.1620619 0.12275992 -0.09288832 0.22259693 -0.17590222 0.076260224 -0.19953783 0.0073006754 -0.45421225 -0.09880287 -0.39942476 -0.14060538 0.32093975 -0.13318555 -0.18666369 -0.37869945 -0.2958133 0.054223802 -0.20406067 -0.0697451 -0.072817236 0.022671225 0.19845797 0.25892153 -0.042228445 0.17446862 0.060497172 -0.17964087 0.02003255 -0.023396019
ATG 0.21229596 -0.23472753 -0.15654811 -0.18343183 -0.06268634 0.23550068 -0.036470845 -0.22939998 -0.032845803 -0.078880645 -0.05852604 0.3674267 -0.055262566 -0.12753566 0.010243034 -0.044039022 0.0735234 -0.14482072 0.12984586 0.122074164 0.003923625 -0.03332246 -0.07164399 -0.045749012 -0.16646147 0.08605782 0.019939587 -0.0037761913 -0.44803163 -0.0027617565 -0.122518264 -0.20597102 0.07215838 -0.039118156 -0.09007933 0.022289984 -0.04585092 0.23971952 -0.27672532 -0.15660873 -0.32505336 -0.040033575 0.050038572 0.18787333 0.10837035 -0.033746842 -0.01990905 0.10280582 0.21093407 0.117667705
ATA 0.075192414 -0.11574613 -0.2024424 -0.36966172 -0.13294196 0.10450351 -0.031809505 0.08123729 -0.047142155 0.05482159 0.1450179 0.36040255 -0.06928695 -0.13796918 -0.19864994 -0.19019681 0.046303015 -0.19809052 0.13312837 0.26907003 -0.29199475 -0.11008228 -0.03068729 -0.061702717 -0.3570384 0.13008201 0.06459886 -0.02711585 -0.3910878 0.16271201 -0.16811185 -0.13962898 0.10679965 -0.17838882 -0.13078144 -0.22757073 -0.23569098 0.32056913 -0.26148954 -0.07282558 -0.29818267 0.105703674 0.15566663 0.110283986 -0.105027065 0.10643523 0.15253091 0.22768046 0.35976112 0.03915328
GAT 0.07404598 -0.23813432 -0.047495164 -0.09357933 -0.028231855 0.28263262 -0.125081 -0.19623135 -0.035443652 -0.07209471 -0.10482892 0.3751007 -0.06595346 -0.09502055 -0.15388775 -0.035736445 -0.016769428 -0.1630165 -0.008797718 0.26890928 -0.08471948 0.17017283 -0.09881371 0.026583806 -0.27437285 0.20464323 -0.0445128 0.09042982 -0.18913564 -0.021175401 -0.21232074 -0.047539253 0.3811226 -0.10087862 -0.17186354 -0.36186156 -0.019240038 0.27888718 -0.23987181 -0.024768913 -0.30165714 0.12013831 -0.014569251 0.07492025 0.0020482086 -0.085939266 -0.02742358 0.09851659 -0.047227018 -0.08089279
TGA 0.10680175 -0.1312956 -0.11800511 -0.08918012 -0.0694864 -0.014301891 0.26695278 -0.14016782 -0.10975663 -0.07217971 -0.063394144 0.26061806 -0.009098642 -0.17164321 0.010931193 0.10685136 -0.08243267 0.10584676 -0.015549134 0.29880854 0.044108097 0.1801657 -0.03164541 0.15279958 -0.0075688185 0.16577972 0.11229924 -0.18859345 -0.34653667 -0.028422825 -0.122105934 -0.108729765 0.31050268 -0.20829003 -0.19156186 -0.31238538 -0.149732 0.38919988 -0.18584038 -0.17062496 -0.20879251 0.10140779 -0.01878288 0.1525957 0.11356938 0.16199474 -0.0215841 0.093951635 0.30272716 -0.106746174
GGG 0.20490767 -0.23714402 -0.09948298 -0.067186885 -0.081022 0.32103634 0.09694979 -0.21235472 -0.390922 -0.36910373 -0.22182937 0.44680634 -0.2009658 -0.13618985 -0.03897558 0.092515655 0.017217536 0.105868235 -0.13177174 0.23670319 0.17194511 0.022701668 -0.19388503 -0.08763594 0.15709643 0.10872994 0.14450319 0.13773221 -0.3468318 0.10137493 0.08372247 -0.1873592 0.1019061 0.008576982 -0.051084626 -0.09045916 -0.046317548 0.20406654 -0.29922158 0.039462034 -0.2444616 0.070505455 -0.07194695 -0.12062675 0.340552 0.12002687 -0.13490757 0.111036174 -0.025876049 -0.03920802
AAC 0.10477284 -0.16542998 -0.20219786 0.026053222 -0.12108868 -0.06948406 -0.09377279 -0.06439343 -0.09600812 -0.029227946 -0.074500814 0.20286855 -0.090407565 -0.1555815 0.15966707 -0.22146489 0.29527408 0.10895282 0.26330256 0.2863541 0.11262364 0.12094368 0.13692844 0.09322971 0.00012751648 0.2205945 0.27327883 0.10609541 -0.30008402 0.4279845 -0.18907668 0.09946836 0.10849487 0.01986051 -0.025992207 -0.05480465 -0.13561459 0.0191614 0.0026426176 -0.15810911 -0.5144725 0.23818508 -0.10889559 0.15516342 -0.18851626 0.13973859 0.18076344 0.12630343 0.067242935 -0.011742155
ACA 0.33999225 -0.3528892 -0.0037188332 -0.14224316 0.04802694 0.042294554 0.08470935 -0.114983745 -0.0766972 -0.002996645 0.14074221 0.05316096 -0.04356323 -0.3393594 0.20396881 -0.0706065 0.068332344 0.22436933 0.26670712 0.26088277 -0.06567776 0.16572788 -0.058040917 0.041917678 -0.30946198 -0.03292696 0.05346078 -0.06379643 -0.3576451 0.48119372 -0.26433167 -0.11494865 0.083396636 -0.17872997 -0.049065735 -0.17465565 -0.14604142 0.13185078 0.11763837 -0.08939123 -0.30166075 0.09110059 -0.0679579 0.101205476 -0.020573301 0.13703005 -0.12810807 0.06056579 0.038421612 0.11657182
TTA 0.13058701 0.15187396 -0.1510389 -0.17556234 -0.23658717 0.15455373 0.064615756 -0.0063757715 0.15571901 -0.0044488125 -0.07569997 0.104665 -0.19787645 -0.11089004 -0.32742423 -0.12204643 0.090188324 0.17107521 -0.09396962 0.10699751 -0.08842802 0.08777764 0.07737252 -0.007370621 -0.35060528 0.17063802 -0.121290535 0.051492196 -0.24754503 0.27332684 -0.4189605 -0.10792596 0.38680822 -0.042279128 -0.19873057 -0.15257454 -0.1878481 0.28848538 -0.1004437 -0.14890781 -0.27239308 0.21973982 0.100793086 0.18202877 0.014515672 0.10285888 0.1463128 0.08674115 0.18602337 -0.04320736
TTC 0.059546147 -0.09269226 -0.14439079 0.04382807 0.013981751 0.088865615 -0.028883524 -0.36931667 0.097560234 -0.14992687 -0.23784973 -0.011335133 -0.19352454 -0.12322797 -0.21348087 0.062262286 0.069506444 0.32452664 -0.019416569 -0.21007024 -0.07944236 0.101636395 0.092272885 0.11926045 0.07239458 0.20535965 0.07136995 0.03725382 -0.1555844 0.22534835 -0.21029048 -0.122576274 0.29188678 0.0766004 -0.16125949 -0.21574317 0.042622972 0.31796366 -0.022463985 -0.21784411 -0.30793694 0.29207698 -0.11054389 0.41739276 0.14749227 -0.0120526645 0.11406743 -0.11259403 0.24088402 -0.08871316
ACC 0.19621524 -0.24761653 -0.32527325 -0.028298613 -0.017084802 0.1567571 -0.16023828 -0.46511772 -0.11501054 -0.21459498 -0.036689475 -0.014979671 -0.21851575 -0.367989 0.05127039 -0.07839081 0.10552685 0.28235325 0.010845565 -0.079224326 -0.08745336 0.0489326 0.09373978 0.00934483 -0.13977005 0.0047691837 0.1995507 0.1735485 -0.44707084 0.5085213 -0.09237953 -0.052741025 -0.07755488 -0.062120065 0.026008014 -0.21242161 -0.2080676 -0.04162766 0.108557574 0.090867 -0.18298435 0.038846854 -0.09341605 0.010734494 -0.25958124 0.070063025 -0.024186041 -0.093981616 0.0060624103 -0.089482665
TAA 0.18660913 -0.063025385 -0.12892757 -0.30270612 -0.13607185 0.06843306 -0.069306895 -0.0007207208 -0.08785391 -0.03364302 -0.077720694 0.14066519 -0.08379168 -0.24383016 -0.13198934 -0.22320966 0.08103698 -0.03251978 0.06014694 0.04832451 0.054868236 0.050862577 0.025959477 0.16244602 -0.12545174 -0.0147093935 -0.17698963 -0.021898411 -0.6307395 0.18532202 -0.45076647 -0.20520201 0.22180264 -0.081955925 -0.22408172 0.022082327 -0.1902396 0.11382161 -0.08425329 -0.16595228 -0.11583156 0.09416451 0.30658665 0.17363247 -0.15145628 0.16202971 -0.13411288 0.05085201 0.28840116 -0.011384053
CAT 0.3039432 -0.29662442 -0.07322974 0.010866288 -0.10244103 0.038764194 -0.038062762 -0.24373275 0.06602012 0.0031661352 0.0626519 0.124998644 -0.06765178 -0.11650315 0.03144727 -0.10985792 0.015919935 -0.0019699365 0.0038183585 0.1493836 -0.03582258 0.2152983 -0.02903306 0.01378369 -0.10315515 0.122196 -0.02337085 -0.05456179 -0.23067456 -0.013572503 -0.3322724 -0.07635391 0.2262744 0.009763924 -0.18492118 -0.21056847 -0.15808852 0.18196084 -0.22084033 -0.03345022 -0.3650943 0.2614115 -0.17423832 0.36059737 -0.1500487 0.120889455 -0.025717827 -0.18520647 -0.049078535 -0.16727813
CTT 0.32819608 -0.06856413 -0.029278869 0.010685503 -0.053829357 0.17375323 -0.1274216 -0.40236467 0.16078326 -0.05300478 0.06101821 -0.028646246 -0.37377247 0.058167174 -0.066726886 -0.067447565 0.15943313 0.2604204 0.12712152 -0.078827366 0.112075604 0.26080766 -0.052946582 0.2650432 -0.07191361 0.20514728 -0.18591201 0.1206287 -0.3608447 0.31345206 -0.19147375 -0.060081434 0.08764254 0.23566532 -0.33904013 -0.1555034 -0.17828682 0.26503813 -0.19380482 -0.18852288 0.13816747 0.1241374 0.112849295 0.18794487 -0.026633635 0.029627245 -0.04596824 0.0048076157 0.18999203 0.05535786
GCA 0.119898446 -0.33476642 -0.1481565 -0.048284926 -0.088908724 0.021727582 0.11275437 0.025394088 -0.04275518 -0.34229824 0.21186598 0.2541235 -0.27365366 -0.166541 0.2136548 0.075186744 -0.1986469 0.02112197 0.30997416 0.18915479 -0.029386446 0.21923986 0.049342897 -0.19302438 -0.17930858 0.13206935 -0.004869789 0.14949359 -0.31540993 0.35698217 -0.15393448 -0.120119564 0.16122402 0.024077324 0.021094864 -0.12427659 -0.015991516 0.27138555 -0.12094397 -0.0608185 -0.085408 0.03767768 -0.042750098 0.12289354 0.16306043 0.10191565 -0.09105438 -0.07782205 0.044312388 0.04907306
TCA 0.20251577 -0.21087381 0.07599908 0.29503235 0.05180699 0.11402142 -0.03313847 -0.19822787 -0.18340223 -0.039032694 0.026541132 0.16680174 -0.12883186 -0.16164534 0.16520083 -0.03130232 -0.09794944 0.09582284 0.15024391 -0.005604242 0.14783804 0.38506293 -0.15182842 0.045265295 -0.28316906 0.06176805 0.04195579 -0.013811813 -0.22665875 0.2542504 -0.25098908 0.042846594 0.11979076 0.10149265 -0.25740778 -0.23124063 -0.1808996 0.22303179 -0.02622401 -0.09622891 -0.12484071 0.2937721 0.0022425514 0.35053405 0.06624505 0.035940483 -0.124783985 -0.08402647 0.30277777 0.022619199
ATC 8.25161e-05 -0.2850793 -0.2341228 -0.2091826 0.12960105 0.08129181 -0.1978411 -0.28526625 -0.10314472 -0.067688234 -0.042989306 0.19018391 -0.11367598 -0.21544525 0.006847111 0.0297493 0.09731045 -0.087306015 0.20818898 -0.12589945 -0.159769 -0.095989905 0.06480941 0.06621816 -0.034278613 0.15288267 0.32088822 0.05203072 -0.25182518 0.07687836 -0.1597953 -0.23546506 0.03923874 0.06197393 -0.06305347 -0.23418906 0.10655192 0.34822693 -0.13065346 -0.16965389 -0.23968624 0.23386237 -0.041942842 0.43181512 -0.05582275 0.07667185 -0.0066642845 0.037015904 0.3172778 -0.010772582
GGT 0.23682687 -0.26043478 -0.114414215 -0.0061579524 -0.06921421 0.24716176 0.1269862 -0.20994905 -0.11683106 -0.15641579 -0.2581772 0.4139152 -0.12085954 -0.071974225 -0.043651048 0.08768584 0.12090949 0.30532363 0.21613494 0.03483753 0.061748974 0.005522584 -0.39637595 -0.23817576 0.118713535 0.2531081 -0.10868483 0.091958195 -0.2921653 0.09023194 0.012419267 -0.27483103 0.27220708 -0.060690187 -0.14920138 -0.19988164 -0.091687754 0.04303286 -0.21294641 -0.15695553 -0.107628606 0.06527967 -0.16407692 0.020385254 0.18309738 0.119133174 -0.046135824 -0.04561281 0.16230771 -0.010698539
GTT 0.23571025 -0.18420441 -0.08311135 0.014739758 0.013244844 0.09832099 0.059090648 -0.23727202 0.046530034 0.121046305 -0.16461411 0.18830933 0.011652992 0.0849484 0.06798566 -0.04207825 0.043254625 0.2695826 -0.015152481 0.014201999 0.017778682 0.3515006 -0.31932554 0.09569457 0.008676006 0.25102848 0.03847496 0.30999234 -0.2912543 0.11183447 -0.051289286 0.0054658675 0.24580663 0.11964771 -0.25462994 -0.33314687 -0.06308842 0.3169451 -0.21161397 -0.13949628 -0.11028219 0.15021409 0.12869702 0.20038478 0.3068483 0.046744656 0.011040072 0.14829144 0.102012746 0.11836027
CCC 0.06768139 -0.21631117 -0.50543344 0.119314626 -0.0017637677 0.11762078 -0.26936266 -0.3022699 -0.23999277 -0.24698935 0.08522306 -0.07183883 -0.4510769 -0.28864694 -0.046992514 -0.1614186 -0.022487469 0.038287774 -0.021488987 -0.06505046 0.119028434 0.036930528 0.08380312 -0.025863955 -0.11659224 0.045534216 0.22646321 0.3733412 -0.24701829 0.3193597 -0.18048021 -0.02272978 -0.015225778 0.20054132 0.025765931 -0.21954817 -0.17141934 -0.010063058 -0.0922729 0.009013514 -0.20399271 0.096330285 -0.18014777 0.37459904 -0.33512744 0.021204224 0.036848776 -0.18256596 -0.012495147 -0.14617966
CAG 0.3356995 -0.29724076 -0.11325845 -0.07076456 -0.08964544 0.057147488 -0.0062206434 0.03975348 -0.07484302 -0.19619353 0.19844902 0.19008397 -0.06925659 -0.1385204 0.1563829 -0.2667487 -0.088470876 0.20769688 0.0005512308 0.21200795 -0.05166305 0.050768528 -0.07638373 -0.17963569 0.20750014 0.14209215 0.10120143 0.054921657 -0.33672443 0.18357447 -0.005198831 -0.0056550223 0.102383316 0.11303166 -0.18706994 -0.0107250335 -0.124795854 0.2763461 -0.14192422 -0.037111465 -0.35973024 0.17463769 -0.16484015 0.31434017 0.081215024 -0.05069911 -0.08268835 -0.030597849 0.04944247 -0.10811837
TCT 0.13937071 -0.15712546 -0.027503213 0.41351804 -0.048359867 0.16864748 -0.14450409 -0.33588785 -0.064228974 -0.040191174 -0.10162885 0.19084068 -0.18528804 -0.07587266 -0.16352215 0.02241799 -0.14018399 0.07348924 -0.08238408 0.031438816 -0.08126187 0.39251766 0.00028309104 0.09327905 -0.16224752 0.17947726 -0.071889736 0.05614253 -0.28035364 0.21653351 -0.18902777 0.15087721 0.20584631 0.033848662 -0.23854929 -0.14239384 -0.14692716 0.22364235 -0.053540524 0.014169534 -0.19144022 0.27438927 0.1354932 0.23910056 0.072833225 -0.117595784 0.23884337 -0.073919244 0.39296082 0.04953401
GTG 0.32707298 -0.19255175 -0.091895916 -0.12596166 -0.062143087 0.13081765 0.21797766 -0.2910573 0.070221685 -0.09623792 -0.22272861 0.3346446 0.029662201 0.014883107 0.010441865 -0.06812817 -0.02530664 0.13562433 -0.03362654 0.019491747 0.07727145 0.2533407 -0.27741382 -0.058697462 -0.036542095 0.19182634 0.009672168 0.23008704 -0.45253742 0.11397231 -0.021422101 -0.21042605 0.08105023 0.069288865 -0.045068182 -0.021332532 -0.09447738 0.23557672 -0.2961489 -0.031597607 -0.34531006 -0.0056309435 -0.0632237 0.11684039 0.51170254 0.008123585 0.06695724 -0.052182347 -0.13707332 0.26381385
TGT 0.23286654 -0.28398663 -0.11872445 -0.06105865 0.050150923 0.24730593 0.19482942 -0.14745094 -0.011700609 -0.054941397 -0.101913944 0.26282623 0.109778844 0.05727932 0.027188042 0.014205777 -0.0135815125 0.112897575 0.10656427 0.05264415 -0.060904574 0.060976885 -0.23782296 0.00044443412 0.016769212 0.27646217 -0.13100715 -0.01849547 -0.42209855 0.06819134 0.019040778 -0.26048246 0.3474596 -0.12416783 -0.20732509 -0.34914324 -0.14940791 0.26526892 -0.0772505 -0.1757857 -0.093220085 0.09356805 -0.053908862 0.14629659 0.061453063 0.016380602 0.22610284 -0.20160948 0.37655622 0.064662345
AGC 0.1201559 -0.27533585 -0.13172998 -0.06463988 -0.09762295 0.026568962 -0.06096911 -0.030792084 -0.049540635 -0.065460294 -0.0019234236 0.14772494 -0.27577415 -0.046969365 0.1514285 0.025119603 -0.12379757 0.11435872 -0.044826917 0.00084182847 0.001429209 0.12744741 0.06307182 -0.13636297 0.005454153 -0.083651565 0.010865162 0.30971524 -0.29565576 0.2509547 0.08497075 0.21774516 0.105595924 -0.0045972974 -0.050878815 -0.10308458 -0.26741302 0.2177362 -0.35937482 -0.21558124 -0.41253516 0.23167798 0.060570568 0.18857148 -0.11007223 -0.022638943 -0.14893527 0.10778359 0.27629137 0.001468542
TCC -0.027134646 -0.09586193 -0.27161676 0.232688 -0.031381235 0.10573692 -0.14422724 -0.47938877 -0.21252634 -0.15947556 -0.14793919 0.20521858 -0.18551825 -0.2661103 0.06212884 -0.13032746 0.012400159 0.08003014 -0.02804355 -0.30753028 0.122762814 0.20090814 -0.061920878 0.10387244 -0.22212379 0.051636294 0.35099116 0.1045775 -0.3398255 0.2132914 -0.13232678 0.11156875 0.018285384 0.11064071 -0.117182136 -0.3768018 -0.2758976 0.01777019 -0.065060444 -0.04757563 -0.13223732 0.12864937 -0.035685048 0.3231439 -0.1377789 0.035093382 -0.0019558333 -0.23164636 0.22887151 -0.22399154
CAC 0.12554514 -0.24419022 -0.17447592 0.13811673 -0.111405484 -0.05017919 -0.116360925 -0.17095186 0.17216744 -0.1384022 -0.12275611 0.12190337 0.00093065 -0.08816262 0.21976258 -0.110594675 0.0037154725 0.15531893 0.20605797 0.14692071 0.103732064 0.27143684 0.14195482 -0.027487393 0.042152427 0.29626334 0.031761203 0.22075729 -0.43581623 0.32122016 -0.10336264 0.08528214 0.059729505 -0.031029077 -0.0872468 -0.04963457 -0.16227736 0.14822803 0.045623988 0.06775768 -0.24824019 0.3159834 -0.19804952 0.34526876 -0.33266076 0.05646666 0.06685198 -0.038647078 -0.030544102 0.0006856068
CCT 0.1339892 -0.3186389 -0.2996142 0.20542249 0.12354699 0.24079067 -0.292463 -0.20479122 -0.2196323 -0.121976756 0.021537106 0.022285437 -0.3097873 -0.11542781 -0.18872762 -0.0501852 -0.20714386 -0.0934042 -0.015218508 0.07919993 -0.0047574947 0.19873756 0.03501796 0.023960063 -0.023838865 0.23505624 -0.045785163 0.40408736 -0.2604136 0.23018046 -0.201268 -0.13389374 0.036075503 0.19091633 -0.047182776 -0.06104368 0.002586086 0.15626688 -0.038208317 0.10325815 -0.10490337 0.24740392 -0.025704091 0.34987646 -0.10366115 -0.07341368 0.19237688 -0.11128073 0.24138771 0.19494653
GGC 0.2478211 -0.3351498 -0.16505885 -0.12710395 -0.1082239 0.032125566 -0.08904239 -0.10756979 -0.037746876 -0.332327 -0.27436388 0.22778316 -0.3068997 -0.19524151 0.04110858 0.2401474 -0.15009311 0.087028116 0.11339843 0.13214764 0.22511914 0.105195664 -0.067091145 -0.3248204 0.011604382 0.020629805 0.045066353 0.29410893 -0.37205923 0.15259327 0.3177904 -0.03583809 0.20276524 -0.15306078 -0.10274358 -0.022341091 -0.1494441 0.18802015 -0.34219626 -0.22178188 -0.24455717 0.12603363 -0.042831387 -0.007429307 -0.13079086 0.028525535 0.056530505 0.16010341 -0.098469324 -0.07577621
AGT 0.13411818 -0.26056427 -0.117549956 -0.028524972 -0.11886473 0.22898546 0.17635056 -0.06971364 -0.073875636 0.0978271 0.02502243 0.32860294 -0.13931459 0.08161349 0.06512073 -0.055680744 0.10924198 0.2800017 0.008409907 0.06357292 -0.1997105 -0.015328908 -0.14885394 -0.053063177 0.08763971 0.116675206 -0.24308592 0.15211476 -0.30918762 0.24990727 -0.16877732 -0.021916546 0.19883849 -0.046102505 -0.04555838 -0.27671185 -0.31646684 0.032224633 -0.2369918 -0.10662206 -0.3036073 0.09650672 -0.008414495 0.04537215 0.12757134 0.1164649 -0.19107223 -0.0850699 0.45973015 0.12611324
ACT 0.34152687 -0.30464533 -0.1776105 0.0002844668 0.012739717 0.13107248 -0.11703728 -0.23908147 -0.09210005 -0.021649452 0.0076839803 0.0073318672 -0.13500486 -0.23871587 -0.27566704 -0.028180469 -0.062770374 0.22792062 -0.089538656 0.14222136 -0.32917053 0.12226248 0.0012780342 -0.0023423093 -0.111552134 0.0906919 -0.096170254 0.1231893 -0.3993182 0.43501323 -0.12896423 -0.1388435 0.06259063 -0.13657936 -0.07618374 -0.08299267 -0.16526827 0.13044995 0.07333713 0.13459966 -0.23149358 0.16124314 0.079231635 0.019013187 0.0076836995 0.038904063 0.26555464 -0.0033920233 0.21011032 0.1571533
CTA 0.20101058 -0.019644432 -0.17819084 -0.14326236 -0.13546869 0.060610823 -0.06308917 -0.10892555 0.07304595 -0.14674523 0.100110635 0.07003864 -0.32919383 -0.0775365 -0.29922986 -0.17459792 -0.1136833 0.10669498 -0.0348588 0.075493194 0.027764125 0.1511621 0.052078605 0.026574267 -0.14523706 0.2529528 -0.13599987 0.21677615 -0.36905003 0.38729253 -0.13918583 -0.09878524 0.033080757 0.057889078 -0.14519142 -0.0897091 -0.33756196 0.22552694 -0.16800414 0.07006341 -0.02788256 0.22709852 -0.0724241 0.19379838 -0.16300555 0.08467897 0.107798025 -0.091333814 0.07268584 0.05424187
CTC 0.12915744 -0.21195143 -0.13160446 -0.1618984 0.10389301 0.10839267 -0.21558814 -0.5337264 0.04705337 -0.3113985 -0.018018892 -0.010583847 -0.3555712 -0.14052388 -0.20417193 0.07889296 -0.06523741 0.068515316 0.03648743 -0.20397083 0.007558732 0.09619126 0.23410903 0.2135344 0.11764131 0.2611863 0.025162222 0.11513831 -0.30626416 0.28682965 -0.055435818 -0.2161403 -0.06801426 0.14386137 -0.066588625 -0.072053924 -0.03354028 0.30835906 -0.15812473 -0.045450866 -0.060195137 0.30528235 -0.21253078 0.30904862 -0.14883855 0.008159463 0.020669993 -0.252036 0.16602445 -0.019302092
CGA 0.07345015 -0.18108301 -0.2863405 -0.03127846 0.06359273 0.13304053 -0.12829404 -0.36086717 -0.115379214 -0.09553271 -0.112018175 0.34027743 -0.0811306 -0.37787414 0.08206239 0.18478146 -0.15005772 0.12355468 -0.05508625 0.32049894 0.14607365 0.2464388 0.22640446 0.028936232 -0.1134755 0.27765858 0.22637837 0.22066341 -0.19091004 0.08288618 -0.22757371 -0.10712293 0.16758633 -0.09668926 0.040516153 -0.08647536 0.021349156 0.25314948 0.03451428 0.022423815 -0.067722365 0.14711212 -0.22544126 0.1953982 -0.16745384 0.06726261 -0.2774087 0.16747496 -0.06902063 0.08891576
TAC 0.032741547 -0.25057054 -0.3016818 -0.01507551 -0.18154863 -0.10557453 -0.12317005 -0.13267106 0.062582806 0.019348878 -0.16620843 0.20669413 -0.08815642 -0.0323405 -0.014688836 -0.18593423 0.061111867 0.06382584 0.084618896 0.092327006 -0.0006564304 0.072633736 0.10262989 0.23123486 0.10179219 0.17150338 -0.12971547 0.26510552 -0.66209024 0.31923974 -0.1149178 0.034102745 0.06752927 -0.07519646 -0.11293977 -0.1841054 -0.36471912 -0.00093349325 -0.0381254 0.019477796 -0.122441515 0.055031247 0.1897801 0.21178824 -0.1177934 0.10230974 0.09849853 -0.012211061 0.08754067 0.19507489
TGC 0.2317882 -0.38789734 -0.15305535 -0.017021962 -0.016242096 0.047585633 0.027118798 -0.11778438 0.037297264 -0.22051662 -0.13855703 0.051541694 -0.15743926 -0.06756258 0.090051934 0.21187994 -0.28445116 -0.0031807332 -0.00039979783 0.066552974 0.10683889 0.17581674 0.039031375 -0.11188696 -0.02596094 0.0039083464 -0.02549006 0.16112098 -0.43618432 0.13315211 0.2722067 0.01412854 0.20298985 -0.15926912 -0.1153827 -0.1095504 -0.19185509 0.31442147 -0.22546609 -0.23303774 -0.32271233 0.13262463 0.007089753 0.22890815 -0.07328798 -0.080765136 0.34952405 -0.122474514 0.18981367 0.059914637
TAG 0.14131644 -0.22123699 -0.235942 -0.23947355 -0.17888574 0.04934309 -0.052701864 -0.055035096 0.00077096577 -0.03771099 -0.003822574 0.26595694 -0.25196078 -0.18194598 -0.17222477 -0.13726729 -0.1662214 0.2795619 -0.13389571 0.10993782 -0.15146832 -0.037002593 -0.007941899 0.14173181 0.16790757 0.054650124 -0.10277029 0.09792179 -0.51903224 0.17445737 -0.00078185636 0.035060894 0.16985129 -0.11426218 -0.21479757 -0.21687059 -0.31906137 0.19175157 -0.11164707 -0.12239687 -0.06139241 -0.08241036 0.19454147 0.17886259 0.15058297 -0.032298177 -0.1416625 0.08802373 0.19960463 0.071861
GCC 0.09423275 -0.26456606 -0.4558775 -0.040763088 -0.119548425 0.080573834 -0.029253256 -0.26944697 0.0052015274 -0.46870017 0.10672505 0.17317392 -0.29986152 -0.17172946 0.21143425 0.02275045 -0.04651435 -0.021070791 0.12603441 -0.1059524 0.021546662 0.14867866 0.073204964 -0.21911274 -0.11722175 0.16442195 0.27577776 0.32268015 -0.38412225 0.22947772 -0.046126474 -0.09125906 0.11816765 0.19018435 0.089554854 -0.18297742 0.025598252 0.15579319 -0.24143563 -0.070491984 -0.105412334 -0.08735552 -0.0802489 0.1557079 -0.008409318 0.047502812 0.12913974 -0.2639503 -0.17196722 -0.23998603
GTA 0.16072449 -0.0360586 -0.16589285 -0.19271196 -0.15130989 -0.022453085 0.12141901 -0.0006373063 0.011404004 0.06001635 -0.06695433 0.25440985 -0.010218024 0.0064833616 -0.19826877 -0.245613 -0.047940217 0.06625788 -0.13005145 0.18703505 -0.069232605 0.2266394 -0.23261082 0.007699329 -0.18412489 0.22927563 0.08092594 0.27750316 -0.3493612 0.19504146 -0.09827968 -0.057919156 0.12030997 0.004443402 -0.14630857 -0.31597635 -0.3080949 0.32487386 -0.28656918 0.13426648 -0.24710722 0.20451471 0.04688835 0.157951 0.19699103 0.16859981 0.1391809 0.14379257 -0.08018998 0.09904159
GAC -0.11808275 -0.1949346 -0.17552769 0.010524961 -0.027759485 0.11120794 -0.14665806 -0.15595692 0.02938794 -0.19170855 -0.24006678 0.25215232 -0.013459672 -0.11816232 0.09428198 -0.03779054 0.16077912 0.04246519 0.30319282 0.27327555 0.06843709 0.10927771 0.071935415 0.028401233 -0.07561728 0.32167804 0.14835067 0.20879102 -0.3301323 0.3100657 -0.0408875 0.03387727 0.16734153 -0.15127136 -0.085304484 -0.29091096 0.0044749174 0.22175306 0.020967783 0.023693489 -0.282782 0.21642558 -0.12809429 0.13117634 -0.25573125 -0.0036174224 0.0062992517 0.2912718 0.008294166 -0.028882362
CTG 0.27392694 -0.2655296 0.034991696 -0.10877532 -0.066120885 0.13022137 0.01478107 -0.38295376 0.15518488 -0.28021818 0.009210421 0.228829 -0.26724297 -0.07278769 -0.0032175004 -0.025502393 -0.07166982 -0.026169343 0.1773038 -0.0057666097 0.13970272 0.16880281 0.035035096 0.0971129 -0.019467805 0.14555252 -0.20535836 -0.0452031 -0.5024503 0.17097731 -0.107105576 -0.16439955 -0.071610115 0.039203357 -0.09123332 0.114845775 -0.15202877 0.18735817 -0.28958383 -0.12061256 -0.20908484 0.009351984 -0.15258983 0.23349623 0.102135286 -0.09249072 -0.12657467 -0.24855849 0.063439846 0.10393372
GCT 0.04106751 -0.23494273 -0.23617896 0.17684798 -0.11711674 0.11846104 -0.045833174 -0.14423822 -0.047940284 -0.36339638 0.061987504 0.27565706 -0.19791265 0.010859635 -0.027071765 0.049449258 -0.10624587 -0.0656808 -0.02975141 0.023211204 -0.29285598 0.21195503 0.17644839 -0.1878324 0.022223003 0.2745039 -0.054680128 0.25030938 -0.36832318 0.32254216 -0.13395023 -0.03389202 0.28470185 0.13071054 -0.00987365 -0.07418727 0.025985403 0.22150524 -0.18779483 0.05651689 -0.22165927 0.15260461 0.1538617 -0.031379767 0.19162604 -0.038933776 0.27958596 -0.22597021 0.24417739 -0.065530606
CCG 0.03605722 -0.3432878 -0.38815683 0.00716013 -0.13597423 0.384166 -0.17177139 -0.22458278 -0.054951493 -0.20408545 -0.20005628 0.020057768 -0.5157039 -0.2603392 -0.018725308 -0.0065450156 -0.27039245 0.13918795 0.05628146 0.11914345 0.25615287 0.16357891 -0.08811749 -0.089698166 0.018633224 0.12491126 0.109129034 0.45003456 -0.3080399 -0.02975765 -0.08762295 0.051516425 -0.141847 -0.042309906 0.11683945 -0.116148636 0.17856981 0.09810104 -0.13082099 0.09882237 -0.15650207 0.05958001 -0.30526668 0.46221146 -0.29670572 -0.026917072 -0.10302652 0.14416185 -0.049337197 -0.04869632
CGG 0.19755487 -0.22971348 -0.3018466 -0.070645034 -0.03721085 0.50129753 -0.052412305 -0.2895566 -0.13504972 -0.29748037 -0.10275714 0.44593167 -0.12523472 -0.20159514 0.21825811 0.20069909 -0.21287294 0.06725061 -0.22878201 0.3602683 0.25060228 0.22437097 0.14115462 -0.11842061 -0.051704627 0.29585677 0.16397165 0.41704857 -0.31832537 0.058683828 -0.05259284 -0.06999864 0.17743915 0.013830159 0.10849361 0.046990696 0.1424054 0.31668052 -0.036366843 0.061826438 0.02709323 0.0018837615 -0.12805668 -0.009337554 0.01110299 -0.0074352976 -0.16873296 0.09846382 -0.12522797 0.10286129
TCG 0.060982976 -0.27947623 -0.12808539 0.1324264 -0.15228365 0.38148603 -0.007787702 -0.33180398 0.025488414 -0.10722398 -0.39448252 0.3184018 -0.17981479 -0.24186935 0.024700606 0.028533952 -0.22406922 0.2549348 0.08074806 -0.05061554 0.13587819 0.2859743 -0.31831527 -0.07073035 -0.026190326 0.21738619 0.17835774 0.084306546 -0.37517732 -0.1593517 -0.06317785 0.10642828 -0.012275803 -0.1836419 -0.05546539 -0.21121252 0.10283147 0.12767847 -0.03691654 0.042019207 -0.10102354 0.09470645 -0.25571612 0.40265697 -0.07776901 -0.05179768 0.00077358604 -0.0006998953 0.2025307 -0.15763527
GCG -0.0212457 -0.27119252 -0.34873408 -0.120221525 -0.26300415 0.29572475 0.05628746 -0.07545022 0.04747221 -0.473459 -0.15311195 0.36087915 -0.36595348 -0.21889545 0.104260646 0.11403254 -0.2411937 0.21712302 0.1474467 0.121774696 0.047326773 0.13949524 -0.042281017 -0.33587685 0.11198987 0.29434267 0.1983131 0.3367811 -0.40220752 0.120011106 0.0728187 0.03645471 0.06020814 -0.07235413 0.16286919 -0.00662952 0.28349268 0.22605973 -0.13966474 0.021954102 -0.07824839 -0.061055776 -0.18429947 0.1213307 0.08996343 -0.0011430909 0.024489613 0.06147128 0.03314893 -0.14642702
GTC 0.07175628 -0.33490312 -0.093422204 -0.15386048 0.21139589 -0.008830997 -0.041928116 -0.39220816 0.05700259 0.012741128 -0.18959837 0.29911 0.05544764 -0.08591754 0.036401127 0.0009433048 -0.069939956 0.22003062 0.11858661 -0.0820628 -0.11422511 0.3165028 -0.14386566 0.15442918 0.15254644 0.39914787 0.2939833 0.29268473 -0.20741057 0.15862052 0.03493914 -0.0513015 0.05061526 0.059593935 0.01563451 -0.279267 0.17079715 0.38425943 -0.08194472 -0.05168995 -0.21851593 0.23843764 -0.19268064 0.38982478 0.26053992 -0.049933124 0.0004813475 0.056365415 0.034465406 0.16594401
ACG 0.14981438 -0.32955542 -0.13716222 -0.15075664 -0.124622814 0.49956223 -0.0012535135 -0.28942335 0.072549924 -0.14274916 -0.2669745 0.08429148 -0.18433814 -0.33712304 0.12061676 0.031554677 -0.035116192 0.36225483 0.13306369 0.1913717 -0.008370422 0.12377913 -0.11398002 -0.09245509 -0.072965324 0.08287606 0.10828716 0.14106067 -0.43835732 0.17930986 -0.09699069 0.038529474 -0.094559744 -0.32611006 0.12868349 -0.061934344 0.24285619 0.10461281 0.057405166 0.08238835 -0.37947643 0.029020064 -0.24798818 0.07752185 -0.15900126 -0.04253324 -0.12221783 0.2664462 0.08315403 -0.029638806
CGC 0.18750915 -0.33257282 -0.36430413 0.02789398 0.21519658 0.15659775 -0.3086558 -0.40689564 -0.12416819 -0.3434622 -0.17478839 0.17429167 -0.105921455 -0.3168378 0.21182531 0.26926848 -0.3354713 0.028496569 -0.13282645 -0.018187542 0.31317148 0.25086007 0.23441717 -0.23958898 -0.080126755 0.13628675 0.22869301 0.5240152 -0.23413518 0.14490834 0.20051195 -0.04755705 0.16651507 0.041155826 0.055876825 0.029820109 -0.049398314 0.27582303 -0.08024507 -0.10559263 -0.09654335 0.19057478 -0.2377221 0.29428464 -0.37006742 -0.14293726 -0.098164365 -0.05879834 -0.12058165 0.041966293
CGT 0.21877876 -0.24511498 -0.35580024 -0.054775033 0.1270493 0.31828633 -0.09695936 -0.3620645 -0.07024378 -0.09702448 -0.1399294 0.496613 0.05028632 -0.19392073 0.08118787 0.1099043 -0.054422062 0.29169914 0.0130808 0.005374598 -0.003081851 0.15652765 -0.011202913 -0.19077915 -0.012659473 0.4601963 0.058970798 0.38807195 -0.23496437 0.18744998 -0.10743303 -0.26857653 0.3574631 0.01862251 0.05697003 -0.110832475 0.04114307 0.08557119 0.13032696 -0.073202886 0.18686736 0.048234686 -0.19594291 0.049065623 -0.08572475 0.0044666906 -0.06853248 -0.14696252 0.06904746 0.14726377
